digraph Tree {
node [shape=box, style="filled, rounded", color="black", fontname="helvetica"] ;
edge [fontname="helvetica"] ;
0 [label="gender <= 0.5\ngini = 0.492\nsamples = 245\nvalue = [165, 34, 46]\nclass = Biryani", fillcolor="#efb489"] ;
1 [label="age <= 82.5\ngini = 0.35\nsamples = 43\nvalue = [34, 3, 6]\nclass = Biryani", fillcolor="#eba069"] ;
0 -> 1 [labeldistance=2.5, labelangle=45, headlabel="True"] ;
2 [label="age <= 55.5\ngini = 0.325\nsamples = 42\nvalue = [34, 3, 5]\nclass = Biryani", fillcolor="#eb9c64"] ;
1 -> 2 ;
3 [label="age <= 45.5\ngini = 0.185\nsamples = 20\nvalue = [18, 1, 1]\nclass = Biryani", fillcolor="#e88e4e"] ;
2 -> 3 ;
4 [label="age <= 41.5\ngini = 0.449\nsamples = 7\nvalue = [5, 1, 1]\nclass = Biryani", fillcolor="#eeab7b"] ;
3 -> 4 ;
5 [label="gini = 0.0\nsamples = 4\nvalue = [4, 0, 0]\nclass = Biryani", fillcolor="#e58139"] ;
4 -> 5 ;
6 [label="age <= 44.0\ngini = 0.667\nsamples = 3\nvalue = [1, 1, 1]\nclass = Biryani", fillcolor="#ffffff"] ;
4 -> 6 ;
7 [label="gini = 0.0\nsamples = 1\nvalue = [0, 0, 1]\nclass = Samosa", fillcolor="#8139e5"] ;
6 -> 7 ;
8 [label="gini = 0.5\nsamples = 2\nvalue = [1, 1, 0]\nclass = Biryani", fillcolor="#ffffff"] ;
6 -> 8 ;
9 [label="gini = 0.0\nsamples = 13\nvalue = [13, 0, 0]\nclass = Biryani", fillcolor="#e58139"] ;
3 -> 9 ;
10 [label="age <= 58.5\ngini = 0.43\nsamples = 22\nvalue = [16, 2, 4]\nclass = Biryani", fillcolor="#eeab7b"] ;
2 -> 10 ;
11 [label="age <= 56.5\ngini = 0.48\nsamples = 5\nvalue = [2, 0, 3]\nclass = Samosa", fillcolor="#d5bdf6"] ;
10 -> 11 ;
12 [label="gini = 0.5\nsamples = 2\nvalue = [1, 0, 1]\nclass = Biryani", fillcolor="#ffffff"] ;
11 -> 12 ;
13 [label="age <= 57.5\ngini = 0.444\nsamples = 3\nvalue = [1, 0, 2]\nclass = Samosa", fillcolor="#c09cf2"] ;
11 -> 13 ;
14 [label="gini = 0.0\nsamples = 1\nvalue = [0, 0, 1]\nclass = Samosa", fillcolor="#8139e5"] ;
13 -> 14 ;
15 [label="gini = 0.5\nsamples = 2\nvalue = [1, 0, 1]\nclass = Biryani", fillcolor="#ffffff"] ;
13 -> 15 ;
16 [label="age <= 64.65\ngini = 0.304\nsamples = 17\nvalue = [14, 2, 1]\nclass = Biryani", fillcolor="#ea9a61"] ;
10 -> 16 ;
17 [label="age <= 61.0\ngini = 0.18\nsamples = 10\nvalue = [9, 1, 0]\nclass = Biryani", fillcolor="#e88f4f"] ;
16 -> 17 ;
18 [label="age <= 59.5\ngini = 0.375\nsamples = 4\nvalue = [3, 1, 0]\nclass = Biryani", fillcolor="#eeab7b"] ;
17 -> 18 ;
19 [label="gini = 0.0\nsamples = 1\nvalue = [1, 0, 0]\nclass = Biryani", fillcolor="#e58139"] ;
18 -> 19 ;
20 [label="gini = 0.444\nsamples = 3\nvalue = [2, 1, 0]\nclass = Biryani", fillcolor="#f2c09c"] ;
18 -> 20 ;
21 [label="gini = 0.0\nsamples = 6\nvalue = [6, 0, 0]\nclass = Biryani", fillcolor="#e58139"] ;
17 -> 21 ;
22 [label="age <= 67.5\ngini = 0.449\nsamples = 7\nvalue = [5, 1, 1]\nclass = Biryani", fillcolor="#eeab7b"] ;
16 -> 22 ;
23 [label="gini = 0.625\nsamples = 4\nvalue = [2, 1, 1]\nclass = Biryani", fillcolor="#f6d5bd"] ;
22 -> 23 ;
24 [label="gini = 0.0\nsamples = 3\nvalue = [3, 0, 0]\nclass = Biryani", fillcolor="#e58139"] ;
22 -> 24 ;
25 [label="gini = 0.0\nsamples = 1\nvalue = [0, 0, 1]\nclass = Samosa", fillcolor="#8139e5"] ;
1 -> 25 ;
26 [label="age <= 89.1\ngini = 0.517\nsamples = 202\nvalue = [131, 31, 40]\nclass = Biryani", fillcolor="#f0b890"] ;
0 -> 26 [labeldistance=2.5, labelangle=-45, headlabel="False"] ;
27 [label="age <= 87.75\ngini = 0.54\nsamples = 180\nvalue = [112, 30, 38]\nclass = Biryani", fillcolor="#f1bd98"] ;
26 -> 27 ;
28 [label="age <= 64.5\ngini = 0.532\nsamples = 174\nvalue = [110, 30, 34]\nclass = Biryani", fillcolor="#f1bb94"] ;
27 -> 28 ;
29 [label="age <= 63.2\ngini = 0.595\nsamples = 55\nvalue = [30, 10, 15]\nclass = Biryani", fillcolor="#f5d0b5"] ;
28 -> 29 ;
30 [label="age <= 54.5\ngini = 0.55\nsamples = 49\nvalue = [30, 9, 10]\nclass = Biryani", fillcolor="#f2be99"] ;
29 -> 30 ;
31 [label="age <= 53.5\ngini = 0.637\nsamples = 17\nvalue = [8, 4, 5]\nclass = Biryani", fillcolor="#f8e0ce"] ;
30 -> 31 ;
32 [label="age <= 49.0\ngini = 0.587\nsamples = 15\nvalue = [8, 2, 5]\nclass = Biryani", fillcolor="#f7d9c4"] ;
31 -> 32 ;
33 [label="gini = 0.0\nsamples = 2\nvalue = [2, 0, 0]\nclass = Biryani", fillcolor="#e58139"] ;
32 -> 33 ;
34 [label="age <= 51.5\ngini = 0.615\nsamples = 13\nvalue = [6, 2, 5]\nclass = Biryani", fillcolor="#fcefe6"] ;
32 -> 34 ;
35 [label="age <= 50.7\ngini = 0.594\nsamples = 8\nvalue = [3, 1, 4]\nclass = Samosa", fillcolor="#e6d7fa"] ;
34 -> 35 ;
36 [label="age <= 50.2\ngini = 0.612\nsamples = 7\nvalue = [3, 1, 3]\nclass = Biryani", fillcolor="#ffffff"] ;
35 -> 36 ;
37 [label="gini = 0.611\nsamples = 6\nvalue = [2, 1, 3]\nclass = Samosa", fillcolor="#e0cef8"] ;
36 -> 37 ;
38 [label="gini = 0.0\nsamples = 1\nvalue = [1, 0, 0]\nclass = Biryani", fillcolor="#e58139"] ;
36 -> 38 ;
39 [label="gini = 0.0\nsamples = 1\nvalue = [0, 0, 1]\nclass = Samosa", fillcolor="#8139e5"] ;
35 -> 39 ;
40 [label="age <= 52.5\ngini = 0.56\nsamples = 5\nvalue = [3, 1, 1]\nclass = Biryani", fillcolor="#f2c09c"] ;
34 -> 40 ;
41 [label="gini = 0.0\nsamples = 2\nvalue = [2, 0, 0]\nclass = Biryani", fillcolor="#e58139"] ;
40 -> 41 ;
42 [label="gini = 0.667\nsamples = 3\nvalue = [1, 1, 1]\nclass = Biryani", fillcolor="#ffffff"] ;
40 -> 42 ;
43 [label="gini = 0.0\nsamples = 2\nvalue = [0, 2, 0]\nclass = Pakora", fillcolor="#39e581"] ;
31 -> 43 ;
44 [label="age <= 58.5\ngini = 0.479\nsamples = 32\nvalue = [22, 5, 5]\nclass = Biryani", fillcolor="#efb082"] ;
30 -> 44 ;
45 [label="age <= 55.1\ngini = 0.314\nsamples = 11\nvalue = [9, 1, 1]\nclass = Biryani", fillcolor="#ea9a61"] ;
44 -> 45 ;
46 [label="gini = 0.56\nsamples = 5\nvalue = [3, 1, 1]\nclass = Biryani", fillcolor="#f2c09c"] ;
45 -> 46 ;
47 [label="gini = 0.0\nsamples = 6\nvalue = [6, 0, 0]\nclass = Biryani", fillcolor="#e58139"] ;
45 -> 47 ;
48 [label="age <= 60.75\ngini = 0.544\nsamples = 21\nvalue = [13, 4, 4]\nclass = Biryani", fillcolor="#f1bc96"] ;
44 -> 48 ;
49 [label="age <= 59.5\ngini = 0.595\nsamples = 11\nvalue = [6, 3, 2]\nclass = Biryani", fillcolor="#f5d0b5"] ;
48 -> 49 ;
50 [label="gini = 0.444\nsamples = 3\nvalue = [2, 1, 0]\nclass = Biryani", fillcolor="#f2c09c"] ;
49 -> 50 ;
51 [label="gini = 0.625\nsamples = 8\nvalue = [4, 2, 2]\nclass = Biryani", fillcolor="#f6d5bd"] ;
49 -> 51 ;
52 [label="age <= 61.75\ngini = 0.46\nsamples = 10\nvalue = [7, 1, 2]\nclass = Biryani", fillcolor="#efb083"] ;
48 -> 52 ;
53 [label="gini = 0.0\nsamples = 1\nvalue = [1, 0, 0]\nclass = Biryani", fillcolor="#e58139"] ;
52 -> 53 ;
54 [label="age <= 62.5\ngini = 0.494\nsamples = 9\nvalue = [6, 1, 2]\nclass = Biryani", fillcolor="#f0b78e"] ;
52 -> 54 ;
55 [label="gini = 0.5\nsamples = 6\nvalue = [4, 1, 1]\nclass = Biryani", fillcolor="#efb388"] ;
54 -> 55 ;
56 [label="gini = 0.444\nsamples = 3\nvalue = [2, 0, 1]\nclass = Biryani", fillcolor="#f2c09c"] ;
54 -> 56 ;
57 [label="age <= 63.7\ngini = 0.278\nsamples = 6\nvalue = [0, 1, 5]\nclass = Samosa", fillcolor="#9a61ea"] ;
29 -> 57 ;
58 [label="gini = 0.0\nsamples = 1\nvalue = [0, 0, 1]\nclass = Samosa", fillcolor="#8139e5"] ;
57 -> 58 ;
59 [label="gini = 0.32\nsamples = 5\nvalue = [0, 1, 4]\nclass = Samosa", fillcolor="#a06aec"] ;
57 -> 59 ;
60 [label="age <= 70.5\ngini = 0.494\nsamples = 119\nvalue = [80, 20, 19]\nclass = Biryani", fillcolor="#efb387"] ;
28 -> 60 ;
61 [label="age <= 68.25\ngini = 0.379\nsamples = 35\nvalue = [27, 4, 4]\nclass = Biryani", fillcolor="#eca26c"] ;
60 -> 61 ;
62 [label="age <= 67.5\ngini = 0.455\nsamples = 24\nvalue = [17, 4, 3]\nclass = Biryani", fillcolor="#eead7e"] ;
61 -> 62 ;
63 [label="age <= 65.5\ngini = 0.272\nsamples = 13\nvalue = [11, 1, 1]\nclass = Biryani", fillcolor="#e9965a"] ;
62 -> 63 ;
64 [label="gini = 0.449\nsamples = 7\nvalue = [5, 1, 1]\nclass = Biryani", fillcolor="#eeab7b"] ;
63 -> 64 ;
65 [label="gini = 0.0\nsamples = 6\nvalue = [6, 0, 0]\nclass = Biryani", fillcolor="#e58139"] ;
63 -> 65 ;
66 [label="gini = 0.595\nsamples = 11\nvalue = [6, 3, 2]\nclass = Biryani", fillcolor="#f5d0b5"] ;
62 -> 66 ;
67 [label="age <= 69.25\ngini = 0.165\nsamples = 11\nvalue = [10, 0, 1]\nclass = Biryani", fillcolor="#e88e4d"] ;
61 -> 67 ;
68 [label="gini = 0.0\nsamples = 1\nvalue = [1, 0, 0]\nclass = Biryani", fillcolor="#e58139"] ;
67 -> 68 ;
69 [label="gini = 0.18\nsamples = 10\nvalue = [9, 0, 1]\nclass = Biryani", fillcolor="#e88f4f"] ;
67 -> 69 ;
70 [label="age <= 73.9\ngini = 0.534\nsamples = 84\nvalue = [53, 16, 15]\nclass = Biryani", fillcolor="#f1ba93"] ;
60 -> 70 ;
71 [label="age <= 72.55\ngini = 0.64\nsamples = 10\nvalue = [4, 4, 2]\nclass = Biryani", fillcolor="#ffffff"] ;
70 -> 71 ;
72 [label="age <= 71.25\ngini = 0.571\nsamples = 7\nvalue = [4, 2, 1]\nclass = Biryani", fillcolor="#f5cdb0"] ;
71 -> 72 ;
73 [label="gini = 0.667\nsamples = 3\nvalue = [1, 1, 1]\nclass = Biryani", fillcolor="#ffffff"] ;
72 -> 73 ;
74 [label="age <= 72.1\ngini = 0.375\nsamples = 4\nvalue = [3, 1, 0]\nclass = Biryani", fillcolor="#eeab7b"] ;
72 -> 74 ;
75 [label="gini = 0.0\nsamples = 2\nvalue = [2, 0, 0]\nclass = Biryani", fillcolor="#e58139"] ;
74 -> 75 ;
76 [label="age <= 72.35\ngini = 0.5\nsamples = 2\nvalue = [1, 1, 0]\nclass = Biryani", fillcolor="#ffffff"] ;
74 -> 76 ;
77 [label="gini = 0.0\nsamples = 1\nvalue = [0, 1, 0]\nclass = Pakora", fillcolor="#39e581"] ;
76 -> 77 ;
78 [label="gini = 0.0\nsamples = 1\nvalue = [1, 0, 0]\nclass = Biryani", fillcolor="#e58139"] ;
76 -> 78 ;
79 [label="age <= 72.8\ngini = 0.444\nsamples = 3\nvalue = [0, 2, 1]\nclass = Pakora", fillcolor="#9cf2c0"] ;
71 -> 79 ;
80 [label="gini = 0.0\nsamples = 1\nvalue = [0, 1, 0]\nclass = Pakora", fillcolor="#39e581"] ;
79 -> 80 ;
81 [label="age <= 73.4\ngini = 0.5\nsamples = 2\nvalue = [0, 1, 1]\nclass = Pakora", fillcolor="#ffffff"] ;
79 -> 81 ;
82 [label="gini = 0.0\nsamples = 1\nvalue = [0, 0, 1]\nclass = Samosa", fillcolor="#8139e5"] ;
81 -> 82 ;
83 [label="gini = 0.0\nsamples = 1\nvalue = [0, 1, 0]\nclass = Pakora", fillcolor="#39e581"] ;
81 -> 83 ;
84 [label="age <= 74.5\ngini = 0.504\nsamples = 74\nvalue = [49, 12, 13]\nclass = Biryani", fillcolor="#f0b58a"] ;
70 -> 84 ;
85 [label="gini = 0.0\nsamples = 7\nvalue = [7, 0, 0]\nclass = Biryani", fillcolor="#e58139"] ;
84 -> 85 ;
86 [label="age <= 86.5\ngini = 0.537\nsamples = 67\nvalue = [42, 12, 13]\nclass = Biryani", fillcolor="#f1bb95"] ;
84 -> 86 ;
87 [label="age <= 85.5\ngini = 0.547\nsamples = 65\nvalue = [40, 12, 13]\nclass = Biryani", fillcolor="#f2be98"] ;
86 -> 87 ;
88 [label="age <= 84.25\ngini = 0.532\nsamples = 57\nvalue = [36, 9, 12]\nclass = Biryani", fillcolor="#f1bc95"] ;
87 -> 88 ;
89 [label="age <= 82.86\ngini = 0.55\nsamples = 49\nvalue = [30, 9, 10]\nclass = Biryani", fillcolor="#f2be99"] ;
88 -> 89 ;
90 [label="age <= 81.75\ngini = 0.559\nsamples = 45\nvalue = [27, 8, 10]\nclass = Biryani", fillcolor="#f2c29f"] ;
89 -> 90 ;
91 [label="age <= 79.5\ngini = 0.525\nsamples = 39\nvalue = [25, 7, 7]\nclass = Biryani", fillcolor="#f0b890"] ;
90 -> 91 ;
92 [label="age <= 77.5\ngini = 0.582\nsamples = 28\nvalue = [16, 6, 6]\nclass = Biryani", fillcolor="#f3c6a5"] ;
91 -> 92 ;
93 [label="age <= 76.5\ngini = 0.519\nsamples = 17\nvalue = [11, 3, 3]\nclass = Biryani", fillcolor="#f0b78e"] ;
92 -> 93 ;
94 [label="age <= 75.5\ngini = 0.582\nsamples = 14\nvalue = [8, 3, 3]\nclass = Biryani", fillcolor="#f3c6a5"] ;
93 -> 94 ;
95 [label="gini = 0.625\nsamples = 8\nvalue = [4, 2, 2]\nclass = Biryani", fillcolor="#f6d5bd"] ;
94 -> 95 ;
96 [label="gini = 0.5\nsamples = 6\nvalue = [4, 1, 1]\nclass = Biryani", fillcolor="#efb388"] ;
94 -> 96 ;
97 [label="gini = 0.0\nsamples = 3\nvalue = [3, 0, 0]\nclass = Biryani", fillcolor="#e58139"] ;
93 -> 97 ;
98 [label="age <= 78.5\ngini = 0.645\nsamples = 11\nvalue = [5, 3, 3]\nclass = Biryani", fillcolor="#f8e0ce"] ;
92 -> 98 ;
99 [label="gini = 0.625\nsamples = 8\nvalue = [4, 2, 2]\nclass = Biryani", fillcolor="#f6d5bd"] ;
98 -> 99 ;
100 [label="gini = 0.667\nsamples = 3\nvalue = [1, 1, 1]\nclass = Biryani", fillcolor="#ffffff"] ;
98 -> 100 ;
101 [label="age <= 80.5\ngini = 0.314\nsamples = 11\nvalue = [9, 1, 1]\nclass = Biryani", fillcolor="#ea9a61"] ;
91 -> 101 ;
102 [label="gini = 0.37\nsamples = 9\nvalue = [7, 1, 1]\nclass = Biryani", fillcolor="#eca06a"] ;
101 -> 102 ;
103 [label="gini = 0.0\nsamples = 2\nvalue = [2, 0, 0]\nclass = Biryani", fillcolor="#e58139"] ;
101 -> 103 ;
104 [label="age <= 82.36\ngini = 0.611\nsamples = 6\nvalue = [2, 1, 3]\nclass = Samosa", fillcolor="#e0cef8"] ;
90 -> 104 ;
105 [label="gini = 0.64\nsamples = 5\nvalue = [2, 1, 2]\nclass = Biryani", fillcolor="#ffffff"] ;
104 -> 105 ;
106 [label="gini = 0.0\nsamples = 1\nvalue = [0, 0, 1]\nclass = Samosa", fillcolor="#8139e5"] ;
104 -> 106 ;
107 [label="age <= 83.5\ngini = 0.375\nsamples = 4\nvalue = [3, 1, 0]\nclass = Biryani", fillcolor="#eeab7b"] ;
89 -> 107 ;
108 [label="gini = 0.0\nsamples = 1\nvalue = [1, 0, 0]\nclass = Biryani", fillcolor="#e58139"] ;
107 -> 108 ;
109 [label="gini = 0.444\nsamples = 3\nvalue = [2, 1, 0]\nclass = Biryani", fillcolor="#f2c09c"] ;
107 -> 109 ;
110 [label="age <= 84.75\ngini = 0.375\nsamples = 8\nvalue = [6, 0, 2]\nclass = Biryani", fillcolor="#eeab7b"] ;
88 -> 110 ;
111 [label="gini = 0.0\nsamples = 1\nvalue = [1, 0, 0]\nclass = Biryani", fillcolor="#e58139"] ;
110 -> 111 ;
112 [label="gini = 0.408\nsamples = 7\nvalue = [5, 0, 2]\nclass = Biryani", fillcolor="#efb388"] ;
110 -> 112 ;
113 [label="gini = 0.594\nsamples = 8\nvalue = [4, 3, 1]\nclass = Biryani", fillcolor="#fae6d7"] ;
87 -> 113 ;
114 [label="gini = 0.0\nsamples = 2\nvalue = [2, 0, 0]\nclass = Biryani", fillcolor="#e58139"] ;
86 -> 114 ;
115 [label="age <= 88.1\ngini = 0.444\nsamples = 6\nvalue = [2, 0, 4]\nclass = Samosa", fillcolor="#c09cf2"] ;
27 -> 115 ;
116 [label="gini = 0.48\nsamples = 5\nvalue = [2, 0, 3]\nclass = Samosa", fillcolor="#d5bdf6"] ;
115 -> 116 ;
117 [label="gini = 0.0\nsamples = 1\nvalue = [0, 0, 1]\nclass = Samosa", fillcolor="#8139e5"] ;
115 -> 117 ;
118 [label="age <= 116.15\ngini = 0.244\nsamples = 22\nvalue = [19, 1, 2]\nclass = Biryani", fillcolor="#e99457"] ;
26 -> 118 ;
119 [label="age <= 96.5\ngini = 0.105\nsamples = 18\nvalue = [17, 1, 0]\nclass = Biryani", fillcolor="#e78845"] ;
118 -> 119 ;
120 [label="gini = 0.0\nsamples = 10\nvalue = [10, 0, 0]\nclass = Biryani", fillcolor="#e58139"] ;
119 -> 120 ;
121 [label="age <= 97.5\ngini = 0.219\nsamples = 8\nvalue = [7, 1, 0]\nclass = Biryani", fillcolor="#e99355"] ;
119 -> 121 ;
122 [label="gini = 0.0\nsamples = 1\nvalue = [0, 1, 0]\nclass = Pakora", fillcolor="#39e581"] ;
121 -> 122 ;
123 [label="gini = 0.0\nsamples = 7\nvalue = [7, 0, 0]\nclass = Biryani", fillcolor="#e58139"] ;
121 -> 123 ;
124 [label="age <= 132.5\ngini = 0.5\nsamples = 4\nvalue = [2, 0, 2]\nclass = Biryani", fillcolor="#ffffff"] ;
118 -> 124 ;
125 [label="gini = 0.0\nsamples = 1\nvalue = [0, 0, 1]\nclass = Samosa", fillcolor="#8139e5"] ;
124 -> 125 ;
126 [label="age <= 148.0\ngini = 0.444\nsamples = 3\nvalue = [2, 0, 1]\nclass = Biryani", fillcolor="#f2c09c"] ;
124 -> 126 ;
127 [label="gini = 0.0\nsamples = 1\nvalue = [1, 0, 0]\nclass = Biryani", fillcolor="#e58139"] ;
126 -> 127 ;
128 [label="age <= 170.0\ngini = 0.5\nsamples = 2\nvalue = [1, 0, 1]\nclass = Biryani", fillcolor="#ffffff"] ;
126 -> 128 ;
129 [label="gini = 0.0\nsamples = 1\nvalue = [0, 0, 1]\nclass = Samosa", fillcolor="#8139e5"] ;
128 -> 129 ;
130 [label="gini = 0.0\nsamples = 1\nvalue = [1, 0, 0]\nclass = Biryani", fillcolor="#e58139"] ;
128 -> 130 ;
}